{
  "layers": [
    {
      "activation": "tanh",
      "num_neurons": 20,
      "neurons": [
        {
          "bias": 0.9331398987230021,
          "weights": [
            -0.29269406752687055,
            -0.04479656964311016,
            0.8131357796761882,
            0.002447757940500554
          ]
        },
        {
          "bias": 0.7631195559702078,
          "weights": [
            -1.4350486616239233,
            -1.2982515336934415,
            0.012246036807794274,
            -0.005517912340925385
          ]
        },
        {
          "bias": -2.2608677404368116,
          "weights": [
            -0.7234750251114334,
            2.1805604143979975,
            -0.21058726015276263,
            -0.18830520631868278
          ]
        },
        {
          "bias": -0.33243477640997965,
          "weights": [
            4.706467592353497,
            -4.0997469599081375,
            0.006807160838076218,
            -0.007926353713323278
          ]
        },
        {
          "bias": 4.298584478815645,
          "weights": [
            -1.209169448219936,
            -7.1338467248584045,
            -0.012929500468902374,
            0.006205110361837058
          ]
        },
        {
          "bias": -0.5543078977803336,
          "weights": [
            -0.8178790701916495,
            1.4906533780902746,
            -2.0328487293165254,
            -0.49100977734453066
          ]
        },
        {
          "bias": -0.7259600973355729,
          "weights": [
            -1.91511505455018,
            -0.05977688447643543,
            -0.1512475181210902,
            -0.04504221338325518
          ]
        },
        {
          "bias": 1.0018753573548962,
          "weights": [
            -0.07983505003369817,
            0.7176165949245108,
            0.20465686548520265,
            0.37257793935320477
          ]
        },
        {
          "bias": -1.006772617491509,
          "weights": [
            -0.29521133626555807,
            -0.32972568980417644,
            -0.10821202802001725,
            0.11184971097332505
          ]
        },
        {
          "bias": 1.3676038109451238,
          "weights": [
            0.4659598845373074,
            -0.3557801260172581,
            0.1835830420644553,
            -0.1471927716336438
          ]
        },
        {
          "bias": 1.8497005983199348,
          "weights": [
            0.5021001075330971,
            0.09044314636964278,
            0.14835475571739556,
            -0.26135165552036776
          ]
        },
        {
          "bias": -0.6991721011857527,
          "weights": [
            -0.5183315751526285,
            0.3789371781927093,
            -0.1637703716754395,
            -0.23093009736033165
          ]
        },
        {
          "bias": 3.1432908911898005,
          "weights": [
            1.029075761042601,
            -3.395432302745207,
            0.3498137975443807,
            0.09673741037043475
          ]
        },
        {
          "bias": 0.4962481373704809,
          "weights": [
            1.2909844108908757,
            -0.6532671232860257,
            0.022973687786162947,
            -0.004715887243997853
          ]
        },
        {
          "bias": 1.2345445511533581,
          "weights": [
            -0.42512635326646303,
            -0.45345652653245844,
            0.10930653855027339,
            -0.004266637114660059
          ]
        },
        {
          "bias": 1.1309274605682196,
          "weights": [
            -1.9589037302222554,
            -0.23550136350261477,
            0.009327132697740275,
            -0.00978544112388045
          ]
        },
        {
          "bias": -4.794180493677007,
          "weights": [
            4.92722425382998,
            4.9346007834397225,
            0.018027447531052104,
            -0.00725664791731211
          ]
        },
        {
          "bias": 0.5275680915929398,
          "weights": [
            1.0759564006405344,
            0.17730411549470393,
            0.23884032317685427,
            0.013664335986905071
          ]
        },
        {
          "bias": 0.46068632508121843,
          "weights": [
            0.47031142594520836,
            0.0523273167889918,
            0.19575716874328114,
            0.08895578481842918
          ]
        },
        {
          "bias": 1.5314150589145399,
          "weights": [
            -1.2127284017493816,
            -0.45161542388415993,
            0.14187089930658628,
            0.23409106143337186
          ]
        }
      ]
    },
    {
      "activation": "tanh",
      "num_neurons": 20,
      "neurons": [
        {
          "bias": -0.006948508969573303,
          "weights": [
            -0.15975522609324214,
            -4.6538582342415795,
            0.7013239149694545,
            -4.1186131896853775,
            -1.707519507534395,
            0.5914682366761826,
            -1.8083758263837022,
            -0.05327434081181812,
            -0.7799297622163355,
            -1.5596923492663555,
            0.6161781760144903,
            -1.705625939274411,
            -0.6625530581243418,
            0.4776274251615939,
            -1.7201116213199743,
            0.634835481540438,
            2.8699571806893873,
            0.5421869949109948,
            -1.5697403601372182,
            -1.024300257947466
          ]
        },
        {
          "bias": -0.9300766109781753,
          "weights": [
            -0.05335346620456392,
            0.48374345585148526,
            1.0067040568285728,
            -1.0138303120412702,
            0.04757008855519202,
            0.5882606852247498,
            6.057928706404561,
            0.6932431486796118,
            1.0716950699608454,
            -0.6175720345348675,
            4.58565709513361,
            -3.9132297473578053,
            -0.7699629582282891,
            -0.4087933442108028,
            -0.6682603963772927,
            0.11236699184696382,
            -1.0608776641010882,
            -2.577049737956978,
            0.9319862256081946,
            -0.11728255205394209
          ]
        },
        {
          "bias": -1.1194997162685245,
          "weights": [
            1.6071437636350911,
            -0.736569560999772,
            -0.6465292999442807,
            -0.16828125603288951,
            0.0388890225181132,
            1.189673350791042,
            -0.19991674837130002,
            -1.8819576284342414,
            2.1768990587424883,
            1.8379309866725309,
            0.5553696562527002,
            -0.4278521891465386,
            0.9263714778944611,
            1.3271306062427966,
            -0.08371417413019984,
            0.7679957927501129,
            0.0696016548891211,
            -0.7597136372621343,
            -3.249272518292419,
            0.2548711979846895
          ]
        },
        {
          "bias": 0.5327957178158922,
          "weights": [
            -0.4094646274870502,
            1.7711217221571731,
            -0.9966556525248222,
            0.8651855390928008,
            0.2984403257230375,
            -0.3586784369444717,
            1.3049806691173296,
            2.489013661977468,
            -1.3104964546197106,
            2.3266292480344055,
            -2.700085826228488,
            0.10176112166970307,
            -1.763481558714907,
            -0.9021411538185726,
            0.5809147051633465,
            -0.29052699130162696,
            -0.34769587740192653,
            0.8769678708866578,
            -2.1623402892499732,
            0.3125976114551279
          ]
        },
        {
          "bias": -0.7254201443558272,
          "weights": [
            1.0079866108251272,
            1.151273712543391,
            -1.1780813169747841,
            0.557893352079084,
            0.636747959512054,
            0.18142700740519968,
            0.6786270637631623,
            -1.7304920874830683,
            -1.0031435979606962,
            -0.5336946900803095,
            -0.044077633520916155,
            0.592281562397617,
            0.11384837072458885,
            0.8166347213456411,
            -0.685865482298425,
            -0.18471461309387063,
            0.07574115785143176,
            -1.4505418845229023,
            -0.9005087619291199,
            -0.5415772975115563
          ]
        },
        {
          "bias": 2.2159087321198525,
          "weights": [
            -0.0032213142452619313,
            1.1253311020155226,
            1.6197039297617344,
            0.0462930542035464,
            -0.06710784234072217,
            -2.8753117090880176,
            -2.580071715273652,
            -0.4965152890618665,
            -5.178903860161431,
            2.785555335249647,
            -2.635969815695498,
            -1.8118569948141747,
            1.2827867950022784,
            -3.1194876699150047,
            -0.2702406775378596,
            -0.9197049646315468,
            -0.007752283723187238,
            -2.6003969479207565,
            -3.965537589610825,
            -2.2309754205157875
          ]
        },
        {
          "bias": -1.8381757027458345,
          "weights": [
            3.181392524012418,
            2.9465329132582414,
            -1.2016878577340406,
            -0.3913309426467694,
            -0.1586307408471242,
            2.0720963822507166,
            1.6566671498295704,
            0.7301330019613044,
            5.617775636511512,
            1.1942037751793417,
            -4.174729107582959,
            -0.4394915135002871,
            -2.015479680095859,
            2.9082948091089467,
            4.4125344642992035,
            -2.2843796056249843,
            0.32199868122963854,
            -1.5119489697463093,
            3.4843714637253846,
            1.6049634108704247
          ]
        },
        {
          "bias": -2.062494370205766,
          "weights": [
            1.5549764149515097,
            -0.790682678673022,
            1.2354877361000218,
            0.08468499074995761,
            -4.235864944226161,
            1.4969931081497294,
            2.623303509003538,
            -0.8354392320732198,
            2.9753842777775787,
            -3.3011661539423365,
            -1.0792768733316411,
            -0.68618950292364,
            -2.359647777421202,
            -1.447141910973778,
            -0.12944985897700353,
            -4.730563810081318,
            0.4279074568800315,
            -1.160337319806591,
            1.8079500678984797,
            3.1375782138786907
          ]
        },
        {
          "bias": 0.7112809540549518,
          "weights": [
            -0.30717550285976475,
            -1.0380330151096253,
            -0.6112590385267674,
            0.32651127878759967,
            0.08816932213787193,
            -0.9848151149525842,
            -1.3650943985266788,
            -0.256842430639012,
            0.110406875607472,
            -0.9326303299157347,
            0.320215129253569,
            -1.0263139592913746,
            0.28572017127464383,
            1.0386611583555065,
            0.299306684125695,
            0.3179203495050353,
            1.0039018308275047,
            0.6240186066901698,
            0.14553335905730183,
            -0.49961043744609107
          ]
        },
        {
          "bias": -1.4624945860267868,
          "weights": [
            -2.9167857006289757,
            -1.612528874159417,
            -1.4394697241833716,
            -0.5955483796828848,
            -0.073281436134011,
            -0.015025947948035311,
            -1.4098059566102958,
            -1.0834133843035905,
            2.2186473465563035,
            -0.4095705942052946,
            1.4119651657279866,
            -0.11729166031932291,
            1.503698830628843,
            3.4337991254462286,
            -1.8468455279781657,
            2.080162245004119,
            -0.058209310062545774,
            -0.4235329525498755,
            -1.228121578268123,
            0.43953393138158187
          ]
        },
        {
          "bias": -0.3667590103382498,
          "weights": [
            -2.158629753614561,
            -0.10047256286427617,
            1.7279199932641496,
            -0.09833153847870116,
            -0.005395822977285791,
            0.30143949518057334,
            2.3237546026730915,
            1.9114161094598088,
            -0.8758475179786139,
            3.4969183296630857,
            0.9126407361723783,
            -0.9198615234808646,
            1.5223881949508127,
            1.397817969769467,
            -4.421434860311727,
            1.3661828599993895,
            0.059101250726388686,
            -0.7491688690265595,
            -2.7502825646941464,
            2.2524687248605297
          ]
        },
        {
          "bias": -3.5935991520196713,
          "weights": [
            1.006250161951035,
            -2.213247651850324,
            -4.360027610092513,
            1.1024908661348993,
            -2.379975225546805,
            0.5504298303965879,
            1.6435162283234448,
            0.41495541987198914,
            0.6090732534496679,
            0.14783432989509815,
            0.14204361062907367,
            0.8646327329358783,
            -1.7425801778022676,
            1.5540668041630434,
            0.8748715625740306,
            -2.28735004919189,
            0.23557938421458546,
            0.2950110764285127,
            0.13439541037990924,
            -0.31439223899617763
          ]
        },
        {
          "bias": 1.0085773601985308,
          "weights": [
            2.7011609774463308,
            -0.5699994283290205,
            5.286660211218615,
            -0.10968319280108202,
            -0.06931442984755981,
            2.3353421732940367,
            0.655033928687065,
            4.577960931353961,
            0.7142651134300556,
            0.6222068492745931,
            -6.513803871216176,
            0.6791253709558798,
            2.0826760691125488,
            -2.16325589949138,
            6.047789136388049,
            -0.21018689606481908,
            0.0559317778937702,
            3.84167273505011,
            0.10435326261051373,
            -2.7809332370466917
          ]
        },
        {
          "bias": 0.9115284051449257,
          "weights": [
            -1.0700116393955574,
            -0.7107091731328365,
            1.8705424546464022,
            -0.3544959528354441,
            -2.857273119677267,
            -0.7337375747289618,
            0.9663450461501172,
            0.8603475160909516,
            1.0914185923902737,
            -0.665429207972326,
            0.9987167801646764,
            1.405205387013937,
            0.0623588767090438,
            0.6564810891167316,
            0.44148513751247054,
            1.7348850004620595,
            -2.864755441609686,
            0.5440319875144034,
            0.9893565868859974,
            0.6284450784836837
          ]
        },
        {
          "bias": 3.9665733369874188,
          "weights": [
            -0.38968879046103705,
            -0.5567364482560784,
            -0.965074814655959,
            -0.0899465362410476,
            -0.019507514444209208,
            -2.4589225147492533,
            -1.1020943339046938,
            -0.17405442417840267,
            0.6170350048280332,
            -0.3240079312650682,
            -3.9413427674748074,
            2.471588798025445,
            -3.4662530480234874,
            -2.431559002295789,
            1.3337958783444204,
            -0.09937117405187446,
            0.10084887939510657,
            -1.2219460295960776,
            5.754170362031043,
            -0.7746504308126093
          ]
        },
        {
          "bias": -2.707511541732396,
          "weights": [
            -0.3775763656821224,
            0.5224340076873261,
            -0.6826702737234036,
            1.1253302126371731,
            0.11062677342324273,
            0.7475978574380803,
            1.9194544764097614,
            0.10075188554217566,
            2.6414942601970286,
            1.5641118216581695,
            -1.2192034360113417,
            -1.6721102034977662,
            -2.077324123438377,
            3.1829092785875313,
            -1.7809789131053513,
            -5.837247188029208,
            0.07711577822629637,
            -1.3565610860357271,
            1.6693927247368978,
            -1.3790556262861775
          ]
        },
        {
          "bias": -1.3507805276311382,
          "weights": [
            -1.891287583206591,
            2.1795814477398046,
            -1.5561189272699183,
            4.350331643630232,
            3.851774088351855,
            0.46015363333727494,
            -2.3922786707760677,
            -1.2090426669436605,
            0.6644425526768281,
            0.12349060167153197,
            0.02134413677991903,
            -1.5473540068788265,
            -0.28491251495836845,
            3.356740137433701,
            0.33090978033237095,
            -0.3979478564690504,
            -1.7454592963578115,
            0.2992493989148971,
            -1.5614386447072452,
            -0.608709541601065
          ]
        },
        {
          "bias": -3.6850278185428884,
          "weights": [
            -2.0143514011087307,
            -0.6634702885662838,
            2.4281557039613575,
            0.1262996888949264,
            0.10805487102864685,
            -3.4661673525810763,
            -2.546892110736223,
            -6.147453641643784,
            2.94676407781003,
            -0.016063131811568928,
            6.210776429534555,
            -7.346127640241857,
            -1.8628016723199425,
            1.8611267581145836,
            -5.469993194359547,
            0.38316842085093966,
            0.11314485491693158,
            -3.218165721442167,
            3.1237917672364657,
            2.0187429558516583
          ]
        },
        {
          "bias": 0.9938975558557125,
          "weights": [
            0.767602877902583,
            -0.5360879656394637,
            0.1794565156505821,
            -1.1396459347176846,
            0.4432882803429179,
            -0.8657987663291925,
            -0.8547700873528123,
            -0.0860633717245184,
            -0.3321152954776713,
            -1.571680140594764,
            -0.43415016530982553,
            -0.8007142838381374,
            0.6153210069783116,
            1.193462313644752,
            -0.08031862427460079,
            -0.9229361599040367,
            -0.16140354916725877,
            -0.7123493996237351,
            -0.07358393107973019,
            0.45275450655362953
          ]
        },
        {
          "bias": -0.24315505596865808,
          "weights": [
            1.6370887585311278,
            0.2820028643399789,
            1.516637142547767,
            0.23960957965674062,
            0.07585315597851892,
            -1.2266051365732762,
            0.06657429437368723,
            0.22354590311219535,
            -0.6236215600215866,
            1.527838614824978,
            -2.0543983193110313,
            1.6847046428608548,
            -0.9356470830183259,
            0.5583060412048623,
            -1.0912577229763072,
            0.1672351980820097,
            -0.3214867996116518,
            -0.3423119304624328,
            4.711463724408829,
            -1.0501553518035927
          ]
        }
      ]
    },
    {
      "activation": "tanh",
      "num_neurons": 20,
      "neurons": [
        {
          "bias": -2.0715441410186575,
          "weights": [
            3.646572657828223,
            -0.07866762976127495,
            -0.4198728786630086,
            0.7040626432487058,
            0.9220949724222605,
            -1.0624569449031824,
            -0.38067046663296233,
            -0.4489123999242622,
            0.5678519994600696,
            -2.730463561972121,
            -0.019724277402988308,
            1.3754483460483007,
            -0.18378901170526052,
            -1.9131866778261921,
            0.22542064899327663,
            1.487054542940877,
            4.814620202111666,
            0.1851037807348118,
            -0.005692740281339512,
            -0.09326288544841305
          ]
        },
        {
          "bias": 0.009700042908141622,
          "weights": [
            0.060970137110121045,
            -2.8289561684312527,
            1.4006541933956518,
            0.1965333427269651,
            -0.27642373947553806,
            -1.737072095248833,
            0.08471263828547122,
            -1.1172446343681115,
            -0.35288991841183376,
            -0.8575511790388141,
            0.8710734313491655,
            -0.1401740800731054,
            -0.5464591597587465,
            0.8225296772601783,
            0.5244727859435048,
            0.41955991045261454,
            0.05491963345955628,
            -0.25488686948182804,
            -0.8368077133071745,
            -0.04519078215589866
          ]
        },
        {
          "bias": -0.26458538822228816,
          "weights": [
            0.015439247102539454,
            1.367270630552439,
            1.0661540483302052,
            -0.8319971381832504,
            -0.21570433342488,
            -4.792453756895579,
            -0.6958886650650304,
            -2.6789421092408774,
            -0.30186421581821765,
            0.8758566174721145,
            0.05860847044519894,
            -0.03868097055712102,
            -1.8624538487108688,
            -0.5394478233407578,
            1.5214949536864923,
            -0.05802627799547884,
            0.003493083010003852,
            -1.977708460864516,
            -0.6398585512142035,
            1.2044383203406825
          ]
        },
        {
          "bias": 0.5786897124413334,
          "weights": [
            -0.028366017678320248,
            0.10206475912265525,
            -0.5336518449714109,
            -0.5737101199491892,
            -0.07702952516895639,
            1.6055976752261465,
            0.12350677393502654,
            0.3806177262305321,
            -0.1884828675391434,
            -1.093736419951523,
            0.9011998379951166,
            0.10693474378640846,
            -0.550969254768628,
            -0.20431480441880231,
            0.33605966059857584,
            1.144939201143021,
            -0.020052645005063832,
            -0.4343121999374413,
            0.1495407990628385,
            0.4805923830916756
          ]
        },
        {
          "bias": 0.6324769955382382,
          "weights": [
            -0.0021263997587070843,
            2.065546022490004,
            -1.0006180856824125,
            0.19697815065547844,
            -0.14142654046818456,
            4.220183029972376,
            0.17018380750853246,
            2.186816858636543,
            0.6901649731777975,
            1.0970553473570748,
            -1.439581359151334,
            -0.016463432975389432,
            1.2871963654627674,
            -0.12556115404186977,
            -1.1729564187279118,
            1.8963110646848738,
            -0.0076775815982599235,
            1.2828330619983053,
            0.024148317692712626,
            -0.2624347666536117
          ]
        },
        {
          "bias": 1.1457977455918842,
          "weights": [
            -0.03390820704183858,
            0.08498913223551063,
            -1.1421157987896682,
            0.8366948397864944,
            -0.08114623542921393,
            0.5628771049381331,
            -0.08225932698044827,
            -0.12574832621170776,
            1.3413126048261537,
            -1.8201470189093194,
            0.07860474352700225,
            0.17553663366070024,
            1.5157431555798624,
            -0.7300898887204711,
            -1.6823331470302625,
            0.12009640833897754,
            -0.001278007909740042,
            2.5444618580463185,
            1.729223355047288,
            -1.1035962687698126
          ]
        },
        {
          "bias": -0.5448707682542557,
          "weights": [
            -0.06998632925050026,
            0.15215354507213658,
            0.24289315554449825,
            -0.04928829641787609,
            0.020795632456945497,
            -1.2484333774249132,
            -0.533928136240666,
            -0.6632901380552745,
            -0.03449316245926018,
            -1.131882078004308,
            -0.24652477502814346,
            -0.08501972236212813,
            -0.14847776200983942,
            -2.247768542935881,
            0.04638505789621594,
            0.5680946692942273,
            0.2385861935631593,
            -0.3405038287860678,
            -0.900999466786727,
            -1.8403536812400416
          ]
        },
        {
          "bias": 0.08421115688154475,
          "weights": [
            0.5371893203523124,
            0.4723213439048133,
            0.061615355368334554,
            0.5134278565786059,
            -0.21591480807588936,
            1.4371438381194868,
            -0.07315291064528169,
            0.672948674068589,
            0.060757015107336214,
            2.1151766732944197,
            1.7031939713988027,
            0.6361110729013975,
            0.3061125562390223,
            -2.199213565688286,
            0.10924497259406966,
            0.13213305052186203,
            2.1620034216861153,
            0.6089171138134077,
            -0.6453379516159363,
            2.424777094572539
          ]
        },
        {
          "bias": 1.4013770852274734,
          "weights": [
            0.010761677910916732,
            4.116488566970187,
            -0.6754238917918789,
            0.19715862460550404,
            -1.7606784910852475,
            -2.718276664750086,
            0.2861462973445843,
            -2.014283805292511,
            1.6075802535084496,
            -0.5262864744198341,
            3.930068125561383,
            0.0013305444373487828,
            0.35615585049674736,
            -0.2120788321645147,
            -1.4378097095045554,
            -0.22462681296824008,
            0.005369099276345806,
            -0.47184634289155525,
            1.7048825331105122,
            2.0808029033181783
          ]
        },
        {
          "bias": 1.6498369575467562,
          "weights": [
            -0.13679057890072294,
            2.057218027254754,
            -1.00222509925629,
            -0.9135807568241926,
            -1.994695738117592,
            3.7422864831535385,
            -1.5844514736583677,
            -2.279237183486608,
            1.330594108321168,
            -0.3579049891251752,
            2.8825574440745134,
            0.08974300418838263,
            3.143959095934981,
            -0.7972822084909755,
            -0.8051445831449698,
            2.617115838680094,
            -1.3790265938035502,
            0.14731772542279162,
            1.3899914097860262,
            -1.2618256542359858
          ]
        },
        {
          "bias": 0.3073947345117002,
          "weights": [
            1.4265747552706753,
            -1.0484710161411197,
            -0.02474063288095906,
            0.059435427471901524,
            -0.5020189243864509,
            1.1497138554908095,
            0.16275204260711962,
            -0.16136053853343102,
            -0.5752315831282911,
            0.5892494018434745,
            0.05992712711166878,
            1.3653781353133916,
            -0.030999348338934564,
            1.2026608466516653,
            0.30399380224001554,
            0.18569976343187528,
            -1.0792565216061463,
            -0.3359648708537334,
            0.7649192523756172,
            0.19744525841405802
          ]
        },
        {
          "bias": 0.226445113261541,
          "weights": [
            0.20357969270107257,
            -0.0938834877523608,
            -0.2780418936647844,
            0.07570577152376703,
            0.28886134805585273,
            1.1925434931683494,
            0.4186334677749823,
            0.07439823939909752,
            0.7093279869780463,
            -1.1221483832307921,
            -1.2319190614809201,
            -1.982298057255722,
            -0.11865079259469503,
            1.4333315429524145,
            0.034563883054738474,
            0.2091385225281763,
            1.9148486386006869,
            0.24889096015131998,
            0.2533550786789746,
            0.3373370360547375
          ]
        },
        {
          "bias": -0.04390163803998333,
          "weights": [
            0.046713469747407484,
            -0.37666252476384254,
            -0.42931164668163935,
            -1.4283378909372544,
            0.8083551178439206,
            -1.8059378520279175,
            -0.11014576827285755,
            1.831301775898111,
            0.023862413922386964,
            0.889376584862153,
            0.027947507697226658,
            0.5763736600509995,
            -0.9894737364838716,
            -1.169378494222619,
            0.8428779389397957,
            2.8151764987862427,
            0.00047937395117331926,
            -1.3580255853599494,
            1.037861720338259,
            0.1744947469232901
          ]
        },
        {
          "bias": 1.1704964640640465,
          "weights": [
            0.002926883075121457,
            0.4603181447616494,
            -1.915693816378833,
            0.05944430015941886,
            1.1603901116349804,
            -1.9197766739923154,
            0.06534328181260576,
            -1.0101798977496377,
            1.392043782085244,
            0.1071530159388068,
            3.5692790709687645,
            0.0178299407659884,
            0.802526915971997,
            0.0821293067280047,
            -1.1584126287419436,
            0.3089785988650284,
            0.005502808969516932,
            0.15690629968030242,
            1.071463799808737,
            1.557853957317148
          ]
        },
        {
          "bias": 0.3226064720864794,
          "weights": [
            -0.058127682987862674,
            -0.3154850833594301,
            0.40280884350422186,
            -0.40998085715569765,
            -0.940584552938926,
            1.0932093195717831,
            -0.7713967787697089,
            -1.601895409308167,
            0.19686589207958693,
            -0.19382061066641093,
            2.797568927649528,
            0.13154982678554442,
            0.27108588985898646,
            -0.7417109451231316,
            -1.7728965413830204,
            -0.07736075195509866,
            -0.07762498886318867,
            0.34011301166848523,
            0.122801599570046,
            -1.994371345453444
          ]
        },
        {
          "bias": 0.4230175963647912,
          "weights": [
            -0.006274953705781367,
            -0.16313206236836855,
            -0.5431644759738995,
            0.05666569425166792,
            0.13919181533361802,
            -0.2526684924286179,
            0.009207531522517394,
            0.4767191685786248,
            0.4556341898017047,
            1.2851068046505996,
            0.3317274389083827,
            0.322624221461151,
            -0.9184957938315759,
            0.7438074588179536,
            1.2918060667115505,
            -1.0889760420845143,
            -0.37974076125585626,
            -0.7141279794684634,
            0.4306887940456458,
            -0.07214537552903913
          ]
        },
        {
          "bias": -0.5298788697012019,
          "weights": [
            -3.5367621866208787,
            0.5985468473191036,
            0.27595091457812887,
            -0.6932082459562603,
            -0.6443598508766404,
            1.094048419272142,
            0.38483833456183236,
            -1.9918325227927867,
            0.2342956359460534,
            2.74901171526999,
            0.0005005630919274769,
            -1.4607500984783863,
            0.20116505780141747,
            1.9256049716730526,
            -0.24838006588112127,
            -1.1136893953651257,
            -4.7970199181543975,
            -0.17507681900745994,
            0.4113351820215569,
            0.07203820124526741
          ]
        },
        {
          "bias": 0.3271541316217703,
          "weights": [
            0.15614717472789433,
            0.6171955723230543,
            -0.33809226351021654,
            -0.9793362732668514,
            -0.1540901844366221,
            0.717668773325869,
            -0.020232281782880314,
            -0.08035186048223958,
            0.51275693670603,
            0.30773432242932963,
            0.99088342438624,
            -0.046447539140694785,
            -2.1939708837580456,
            0.8449474171651082,
            -1.6022070358329867,
            0.2742696494153966,
            -0.015843095951661237,
            1.4970796514618372,
            0.5490050328867568,
            0.9836141123052943
          ]
        },
        {
          "bias": 0.2534059381708888,
          "weights": [
            -0.22009736885105222,
            0.9314069178229994,
            -0.9468308392010328,
            2.1199868904447903,
            -0.1337334675270514,
            -0.9325869121176437,
            -0.5576972264148166,
            -0.11179930749791707,
            -0.23185492222799303,
            -2.1114594452394937,
            -0.2383998764257414,
            0.9754789948769422,
            0.32429638954090595,
            2.1016894638276016,
            -0.35456834850304636,
            -3.620295704977112,
            0.0017641131906873293,
            0.8285478598484902,
            0.26136067685704834,
            -0.04674772378155737
          ]
        },
        {
          "bias": 0.5952273037535443,
          "weights": [
            0.002177309928007169,
            -0.007615836063334985,
            -0.36322789940804967,
            0.04073372192226648,
            -1.063870393384008,
            -2.606007625597761,
            0.02135051693963432,
            -2.3421164506086862,
            0.18105560526397269,
            0.01008413369866342,
            3.5304589128464277,
            0.021778524930037277,
            0.5422160281038515,
            0.07819548570803866,
            -0.8755249088830334,
            -0.08598799394485665,
            0.005083182816324212,
            -0.07852957065768372,
            0.2455109987557053,
            1.5405407745787172
          ]
        }
      ]
    },
    {
      "activation": "None",
      "num_neurons": 1,
      "neurons": [
        {
          "bias": -1.4761513215818076,
          "weights": [
            0.3835670746727624,
            0.08410711576836052,
            2.45378840161805,
            0.4114401880463894,
            0.5112096394099183,
            0.8937111812914827,
            -0.03545812599854904,
            -0.006146967136030441,
            0.10059992973455298,
            2.2436184471516056,
            0.001058532194258381,
            0.00951589254735894,
            -5.64012366482877,
            -2.695728956355855,
            0.012391807550978901,
            -0.043267535326047026,
            0.3828502797755636,
            -0.003924594717413175,
            -4.897245543378411,
            2.64381265943397
          ]
        }
      ]
    }
  ]
}